1.000000e-04 4.181069e-03 -1.663036e-03 3.779564e-03 1.588369e-03  -4.951054e-03 -2.116532e-03 3.465600e-03 -1.400222e-03 1.400222e-03 
1.437458e-03 1.247911e+00 -1.085731e-01 6.136617e-01 -1.714385e-01  -1.399681e+00 -5.051026e-01 7.104150e-01 -4.367561e-01 4.367561e-01 
2.774916e-03 4.707906e+00 5.566997e-01 1.290879e+00 -6.766914e-01  -5.206849e+00 -1.847566e+00 2.595103e+00 -2.057919e+00 2.057919e+00 
4.112375e-03 1.044589e+01 2.968360e+00 9.736323e-01 -1.513631e+00  -1.133104e+01 -3.942014e+00 5.531494e+00 -5.238879e+00 5.238879e+00 
5.449833e-03 1.851369e+01 7.699006e+00 -1.020311e+00 -2.656324e+00  -1.961754e+01 -6.678726e+00 9.348752e+00 -1.013088e+01 1.013088e+01 
6.787291e-03 2.895549e+01 1.502004e+01 -5.074737e+00 -4.079108e+00  -2.988483e+01 -9.945244e+00 1.385306e+01 -1.673546e+01 1.673546e+01 
8.124749e-03 4.183309e+01 2.494212e+01 -1.130047e+01 -5.803784e+00  -4.197122e+01 -1.364157e+01 1.884369e+01 -2.493875e+01 2.493875e+01 
9.462207e-03 5.716098e+01 3.737068e+01 -1.969681e+01 -7.824080e+00  -5.568599e+01 -1.767385e+01 2.412515e+01 -3.458910e+01 3.458910e+01 
1.079967e-02 7.489963e+01 5.195517e+01 -3.000003e+01 -1.010332e+01  -7.081425e+01 -2.195560e+01 2.951553e+01 -4.542242e+01 4.542242e+01 
1.213712e-02 9.500227e+01 6.844968e+01 -4.203313e+01 -1.263350e+01  -8.716659e+01 -2.641692e+01 3.485288e+01 -5.724681e+01 5.724681e+01 
1.347458e-02 1.174077e+02 8.642528e+01 -5.542210e+01 -1.542847e+01  -1.045784e+02 -3.100311e+01 3.999734e+01 -6.979735e+01 6.979735e+01 
1.481204e-02 1.420063e+02 1.054433e+02 -6.977748e+01 -1.847658e+01  -1.228762e+02 -3.566626e+01 4.483477e+01 -8.281600e+01 8.281600e+01 
1.614950e-02 1.686544e+02 1.251003e+02 -8.473380e+01 -2.174864e+01  -1.418871e+02 -4.036591e+01 4.927450e+01 -9.607242e+01 9.607242e+01 
1.748696e-02 1.972061e+02 1.450469e+02 -9.997292e+01 -2.524720e+01  -1.614727e+02 -4.507355e+01 5.325309e+01 -1.093769e+02 1.093769e+02 
1.882441e-02 2.275029e+02 1.649973e+02 -1.152290e+02 -2.897556e+01  -1.815144e+02 -4.976860e+01 5.672487e+01 -1.225772e+02 1.225772e+02 
2.016187e-02 2.593643e+02 1.842019e+02 -1.297687e+02 -3.292309e+01  -2.018936e+02 -5.443317e+01 5.966942e+01 -1.352952e+02 1.352952e+02 
2.149933e-02 2.926029e+02 2.027849e+02 -1.437286e+02 -3.707527e+01  -2.225070e+02 -5.905468e+01 6.208163e+01 -1.475922e+02 1.475922e+02 
2.283679e-02 3.270280e+02 2.206974e+02 -1.570734e+02 -4.142918e+01  -2.432679e+02 -6.362387e+01 6.397284e+01 -1.594476e+02 1.594476e+02 
2.417425e-02 3.624602e+02 2.370688e+02 -1.689330e+02 -4.598393e+01  -2.641134e+02 -6.813623e+01 6.536619e+01 -1.704310e+02 1.704310e+02 
2.551171e-02 3.987305e+02 2.525959e+02 -1.800097e+02 -5.073353e+01  -2.849798e+02 -7.258659e+01 6.628878e+01 -1.808962e+02 1.808962e+02 
2.684916e-02 4.356403e+02 2.666779e+02 -1.897054e+02 -5.566699e+01  -3.058118e+02 -7.697218e+01 6.678503e+01 -1.905470e+02 1.905470e+02 
2.818662e-02 4.730669e+02 2.796721e+02 -1.983809e+02 -6.078223e+01  -3.265777e+02 -8.129133e+01 6.689027e+01 -1.995677e+02 1.995677e+02 
2.952408e-02 5.108460e+02 2.914398e+02 -2.058970e+02 -6.607518e+01  -3.472414e+02 -8.554309e+01 6.664605e+01 -2.078931e+02 2.078931e+02 
3.086154e-02 5.488577e+02 3.019659e+02 -2.122411e+02 -7.153769e+01  -3.677814e+02 -8.972610e+01 6.610297e+01 -2.155184e+02 2.155184e+02 
3.219900e-02 5.869904e+02 3.119014e+02 -2.180602e+02 -7.716886e+01  -3.881829e+02 -9.384050e+01 6.528946e+01 -2.227717e+02 2.227717e+02 
3.353645e-02 6.251467e+02 3.204313e+02 -2.225472e+02 -8.295600e+01  -4.084197e+02 -9.788474e+01 6.424851e+01 -2.292482e+02 2.292482e+02 
3.487391e-02 6.632584e+02 3.288724e+02 -2.270146e+02 -8.890379e+01  -4.284991e+02 -1.018588e+02 6.300373e+01 -2.356043e+02 2.356043e+02 
3.621137e-02 7.012727e+02 3.365318e+02 -2.307711e+02 -9.499687e+01  -4.484068e+02 -1.057598e+02 6.158271e+01 -2.414954e+02 2.414954e+02 
3.754883e-02 7.391380e+02 3.429881e+02 -2.333973e+02 -1.012415e+02  -4.681407e+02 -1.095910e+02 6.000571e+01 -2.467109e+02 2.467109e+02 
3.888629e-02 7.768253e+02 3.508911e+02 -2.375445e+02 -1.076217e+02  -4.876968e+02 -1.133488e+02 5.827604e+01 -2.525741e+02 2.525741e+02 
4.022375e-02 8.143265e+02 3.576258e+02 -2.406146e+02 -1.141385e+02  -5.070713e+02 -1.170327e+02 5.641825e+01 -2.577764e+02 2.577764e+02 
4.156120e-02 8.516409e+02 3.636743e+02 -2.430337e+02 -1.207775e+02  -5.262457e+02 -1.206382e+02 5.441579e+01 -2.625585e+02 2.625585e+02 
4.289866e-02 8.887680e+02 3.716890e+02 -2.475164e+02 -1.275446e+02  -5.452500e+02 -1.241710e+02 5.227078e+01 -2.682444e+02 2.682444e+02 
4.423612e-02 9.257460e+02 3.787750e+02 -2.511495e+02 -1.344456e+02  -5.640567e+02 -1.276270e+02 4.997447e+01 -2.733884e+02 2.733884e+02 
4.557358e-02 9.625601e+02 3.851122e+02 -2.541088e+02 -1.414416e+02  -5.826763e+02 -1.310046e+02 4.752099e+01 -2.780798e+02 2.780798e+02 
4.691104e-02 9.992086e+02 3.942547e+02 -2.599448e+02 -1.485712e+02  -6.011023e+02 -1.343090e+02 4.490755e+01 -2.840938e+02 2.840938e+02 
4.824849e-02 1.035805e+03 4.027454e+02 -2.652112e+02 -1.557945e+02  -6.193316e+02 -1.375329e+02 4.208906e+01 -2.897053e+02 2.897053e+02 
4.958595e-02 1.072342e+03 4.105756e+02 -2.698929e+02 -1.631216e+02  -6.373560e+02 -1.406832e+02 3.904815e+01 -2.949118e+02 2.949118e+02 
5.092341e-02 1.108802e+03 4.205734e+02 -2.768189e+02 -1.705498e+02  -6.551628e+02 -1.437528e+02 3.579114e+01 -3.011237e+02 3.011237e+02 
5.226087e-02 1.145192e+03 4.301679e+02 -2.834236e+02 -1.780659e+02  -6.727430e+02 -1.467479e+02 3.230907e+01 -3.070642e+02 3.070642e+02 
5.359833e-02 1.181625e+03 4.392804e+02 -2.896094e+02 -1.856733e+02  -6.901053e+02 -1.496697e+02 2.855928e+01 -3.126953e+02 3.126953e+02 
5.493579e-02 1.218078e+03 4.495682e+02 -2.970534e+02 -1.933702e+02  -7.072223e+02 -1.525155e+02 2.452928e+01 -3.188498e+02 3.188498e+02 
5.627324e-02 1.254408e+03 4.596778e+02 -3.043855e+02 -2.011569e+02  -7.240940e+02 -1.552901e+02 2.026269e+01 -3.248508e+02 3.248508e+02 
5.761070e-02 1.290777e+03 4.693726e+02 -3.113752e+02 -2.090111e+02  -7.407157e+02 -1.579965e+02 1.570864e+01 -3.305888e+02 3.305888e+02 
5.894816e-02 1.327227e+03 4.791750e+02 -3.185414e+02 -2.169426e+02  -7.570835e+02 -1.606320e+02 1.083218e+01 -3.363293e+02 3.363293e+02 
6.028562e-02 1.363463e+03 4.886499e+02 -3.254460e+02 -2.249562e+02  -7.731787e+02 -1.632029e+02 5.747175e+00 -3.418579e+02 3.418579e+02 
6.162308e-02 1.399661e+03 4.977660e+02 -3.320553e+02 -2.330309e+02  -7.889850e+02 -1.657103e+02 3.842348e-01 -3.471660e+02 3.471660e+02 
6.296054e-02 1.435827e+03 5.061633e+02 -3.380051e+02 -2.411757e+02  -8.045237e+02 -1.681555e+02 -5.268513e+00 -3.520727e+02 3.520727e+02 
6.429799e-02 1.471728e+03 5.138840e+02 -3.433433e+02 -2.493817e+02  -8.197698e+02 -1.705422e+02 -1.108726e+01 -3.566086e+02 3.566086e+02 
6.563545e-02 1.507515e+03 5.212126e+02 -3.483406e+02 -2.576415e+02  -8.347311e+02 -1.728731e+02 -1.716806e+01 -3.609197e+02 3.609197e+02 
6.697291e-02 1.542882e+03 5.272262e+02 -3.520741e+02 -2.659654e+02  -8.493919e+02 -1.751510e+02 -2.337152e+01 -3.645505e+02 3.645505e+02 
6.831037e-02 1.578073e+03 5.322967e+02 -3.549200e+02 -2.743321e+02  -8.637493e+02 -1.773748e+02 -2.979155e+01 -3.676875e+02 3.676875e+02 
6.964783e-02 1.612776e+03 5.366547e+02 -3.571011e+02 -2.827481e+02  -8.778329e+02 -1.795543e+02 -3.626469e+01 -3.704521e+02 3.704521e+02 
7.098528e-02 1.647155e+03 5.397905e+02 -3.581061e+02 -2.912143e+02  -8.916153e+02 -1.816856e+02 -4.288934e+01 -3.725948e+02 3.725948e+02 
7.232274e-02 1.680856e+03 5.414820e+02 -3.577125e+02 -2.997213e+02  -9.050951e+02 -1.837726e+02 -4.949704e+01 -3.739990e+02 3.739990e+02 
7.366020e-02 1.714079e+03 5.425116e+02 -3.566954e+02 -3.082564e+02  -9.182954e+02 -1.858171e+02 -5.618530e+01 -3.750686e+02 3.750686e+02 
7.499766e-02 1.746610e+03 5.423618e+02 -3.545375e+02 -3.168400e+02  -9.312157e+02 -1.878218e+02 -6.279972e+01 -3.755413e+02 3.755413e+02 
7.633512e-02 1.778542e+03 5.409378e+02 -3.511460e+02 -3.254390e+02  -9.438529e+02 -1.897900e+02 -6.941503e+01 -3.753748e+02 3.753748e+02 
7.767258e-02 1.809635e+03 5.386208e+02 -3.469032e+02 -3.340915e+02  -9.562122e+02 -1.917205e+02 -7.586302e+01 -3.747558e+02 3.747558e+02 
7.901003e-02 1.840055e+03 5.355906e+02 -3.419765e+02 -3.427417e+02  -9.683121e+02 -1.936167e+02 -8.229274e+01 -3.737799e+02 3.737799e+02 
8.034749e-02 1.869483e+03 5.316050e+02 -3.361273e+02 -3.514278e+02  -9.801497e+02 -1.954761e+02 -8.846517e+01 -3.723215e+02 3.723215e+02 
8.168495e-02 1.898326e+03 5.269401e+02 -3.296305e+02 -3.601123e+02  -9.917559e+02 -1.973064e+02 -9.459105e+01 -3.705235e+02 3.705235e+02 
8.302241e-02 1.926037e+03 5.214799e+02 -3.223784e+02 -3.688313e+02  -1.003136e+03 -1.991051e+02 -1.003997e+02 -3.683252e+02 3.683252e+02 
8.435987e-02 1.953181e+03 5.162772e+02 -3.154070e+02 -3.775396e+02  -1.014264e+03 -2.008695e+02 -1.061569e+02 -3.662517e+02 3.662517e+02 
8.569732e-02 1.979178e+03 5.100668e+02 -3.074565e+02 -3.862622e+02  -1.025181e+03 -2.026090e+02 -1.115499e+02 -3.636696e+02 3.636696e+02 
8.703478e-02 2.004467e+03 5.035222e+02 -2.992090e+02 -3.949890e+02  -1.035899e+03 -2.043128e+02 -1.168101e+02 -3.609166e+02 3.609166e+02 
8.837224e-02 2.028840e+03 4.982823e+02 -2.922911e+02 -4.037210e+02  -1.046414e+03 -2.059911e+02 -1.217999e+02 -3.588102e+02 3.588102e+02 
8.970970e-02 2.052304e+03 4.923139e+02 -2.846760e+02 -4.124474e+02  -1.056738e+03 -2.076382e+02 -1.265258e+02 -3.563301e+02 3.563301e+02 
9.104716e-02 2.075249e+03 4.857964e+02 -2.765351e+02 -4.211531e+02  -1.066892e+03 -2.092605e+02 -1.311555e+02 -3.535703e+02 3.535703e+02 
9.238462e-02 2.097058e+03 4.794340e+02 -2.685817e+02 -4.298644e+02  -1.076876e+03 -2.108517e+02 -1.354117e+02 -3.508762e+02 3.508762e+02 
9.372207e-02 2.118517e+03 4.754196e+02 -2.630057e+02 -4.385671e+02  -1.086692e+03 -2.124171e+02 -1.396267e+02 -3.493454e+02 3.493454e+02 
9.505953e-02 2.139058e+03 4.706994e+02 -2.567456e+02 -4.472465e+02  -1.096348e+03 -2.139527e+02 -1.435474e+02 -3.474498e+02 3.474498e+02 
9.639699e-02 2.158956e+03 4.654228e+02 -2.499613e+02 -4.559144e+02  -1.105868e+03 -2.154612e+02 -1.472890e+02 -3.452605e+02 3.452605e+02 
9.773445e-02 2.178569e+03 4.616255e+02 -2.446828e+02 -4.645592e+02  -1.115233e+03 -2.169421e+02 -1.510123e+02 -3.438009e+02 3.438009e+02 
9.907191e-02 2.197276e+03 4.594994e+02 -2.411042e+02 -4.731882e+02  -1.124460e+03 -2.183970e+02 -1.544365e+02 -3.431621e+02 3.431621e+02 
1.004094e-01 2.215780e+03 4.571794e+02 -2.373569e+02 -4.817994e+02  -1.133561e+03 -2.198226e+02 -1.578759e+02 -3.424079e+02 3.424079e+02 
1.017468e-01 2.233935e+03 4.544659e+02 -2.332426e+02 -4.903696e+02  -1.142536e+03 -2.212240e+02 -1.612433e+02 -3.414436e+02 3.414436e+02 
1.030843e-01 2.251431e+03 4.533693e+02 -2.307712e+02 -4.989240e+02  -1.151389e+03 -2.225978e+02 -1.644045e+02 -3.412712e+02 3.412712e+02 
1.044217e-01 2.269041e+03 4.537806e+02 -2.298376e+02 -5.074660e+02  -1.160094e+03 -2.239440e+02 -1.677348e+02 -3.418355e+02 3.418355e+02 
1.057592e-01 2.286046e+03 4.537628e+02 -2.284921e+02 -5.159789e+02  -1.168675e+03 -2.252663e+02 -1.709104e+02 -3.421730e+02 3.421730e+02 
1.070967e-01 2.302862e+03 4.534131e+02 -2.268496e+02 -5.244431e+02  -1.177162e+03 -2.265615e+02 -1.740566e+02 -3.423283e+02 3.423283e+02 
1.084341e-01 2.319954e+03 4.549751e+02 -2.271489e+02 -5.328742e+02  -1.185523e+03 -2.278325e+02 -1.774510e+02 -3.434240e+02 3.434240e+02 
1.097716e-01 2.336440e+03 4.567476e+02 -2.276665e+02 -5.413049e+02  -1.193753e+03 -2.290801e+02 -1.806853e+02 -3.446151e+02 3.446151e+02 
1.111090e-01 2.352753e+03 4.583116e+02 -2.280070e+02 -5.497065e+02  -1.201854e+03 -2.303026e+02 -1.839277e+02 -3.456836e+02 3.456836e+02 
1.124465e-01 2.369526e+03 4.600215e+02 -2.285199e+02 -5.580465e+02  -1.209853e+03 -2.315023e+02 -1.875047e+02 -3.468156e+02 3.468156e+02 
1.137839e-01 2.385793e+03 4.622355e+02 -2.295583e+02 -5.663882e+02  -1.217727e+03 -2.326805e+02 -1.909230e+02 -3.481910e+02 3.481910e+02 
1.151214e-01 2.401851e+03 4.643541e+02 -2.305209e+02 -5.746893e+02  -1.225474e+03 -2.338340e+02 -1.943864e+02 -3.495057e+02 3.495057e+02 
1.164589e-01 2.418404e+03 4.666889e+02 -2.317185e+02 -5.829676e+02  -1.233098e+03 -2.349678e+02 -1.981925e+02 -3.509215e+02 3.509215e+02 
1.177963e-01 2.434543e+03 4.685986e+02 -2.325132e+02 -5.912016e+02  -1.240588e+03 -2.360831e+02 -2.018895e+02 -3.521207e+02 3.521207e+02 
1.191338e-01 2.450364e+03 4.699426e+02 -2.327682e+02 -5.994155e+02  -1.247970e+03 -2.371754e+02 -2.055543e+02 -3.530284e+02 3.530284e+02 
1.204712e-01 2.466676e+03 4.714702e+02 -2.332204e+02 -6.076053e+02  -1.255223e+03 -2.382497e+02 -2.095709e+02 -3.540219e+02 3.540219e+02 
1.218087e-01 2.482633e+03 4.727078e+02 -2.333993e+02 -6.157594e+02  -1.262345e+03 -2.393077e+02 -2.135552e+02 -3.548670e+02 3.548670e+02 
1.231462e-01 2.498161e+03 4.732818e+02 -2.329327e+02 -6.238896e+02  -1.269354e+03 -2.403477e+02 -2.173932e+02 -3.553804e+02 3.553804e+02 
1.244836e-01 2.513899e+03 4.729061e+02 -2.315361e+02 -6.319714e+02  -1.276238e+03 -2.413694e+02 -2.214717e+02 -3.554134e+02 3.554134e+02 
1.258211e-01 2.529690e+03 4.725164e+02 -2.301404e+02 -6.400495e+02  -1.282987e+03 -2.423761e+02 -2.256869e+02 -3.554439e+02 3.554439e+02 
1.271585e-01 2.544691e+03 4.715205e+02 -2.281569e+02 -6.480916e+02  -1.289612e+03 -2.433682e+02 -2.296206e+02 -3.551716e+02 3.551716e+02 
1.284960e-01 2.559553e+03 4.698415e+02 -2.254993e+02 -6.561048e+02  -1.296131e+03 -2.443430e+02 -2.335970e+02 -3.545544e+02 3.545544e+02 
1.298334e-01 2.574776e+03 4.673954e+02 -2.220913e+02 -6.640715e+02  -1.302523e+03 -2.453047e+02 -2.378445e+02 -3.535565e+02 3.535565e+02 
1.311709e-01 2.589206e+03 4.643656e+02 -2.181096e+02 -6.720225e+02  -1.308794e+03 -2.462557e+02 -2.418165e+02 -3.522711e+02 3.522711e+02 
1.325084e-01 2.602997e+03 4.609008e+02 -2.137105e+02 -6.799446e+02  -1.314945e+03 -2.471895e+02 -2.455554e+02 -3.507694e+02 3.507694e+02 
1.338458e-01 2.616884e+03 4.569381e+02 -2.088306e+02 -6.878286e+02  -1.320988e+03 -2.481114e+02 -2.494800e+02 -3.490193e+02 3.490193e+02 
1.351833e-01 2.630696e+03 4.524212e+02 -2.034002e+02 -6.956829e+02  -1.326916e+03 -2.490220e+02 -2.534441e+02 -3.469991e+02 3.469991e+02 
1.365207e-01 2.643429e+03 4.471832e+02 -1.972643e+02 -7.035111e+02  -1.332742e+03 -2.499221e+02 -2.569709e+02 -3.446208e+02 3.446208e+02 
1.378582e-01 2.655707e+03 4.416494e+02 -1.908391e+02 -7.112988e+02  -1.338462e+03 -2.508150e+02 -2.603628e+02 -3.420922e+02 3.420922e+02 
1.391957e-01 2.668241e+03 4.361490e+02 -1.844637e+02 -7.190477e+02  -1.344081e+03 -2.516824e+02 -2.639633e+02 -3.395821e+02 3.395821e+02 
1.405331e-01 2.680128e+03 4.301782e+02 -1.776306e+02 -7.267896e+02  -1.349593e+03 -2.525485e+02 -2.673333e+02 -3.368474e+02 3.368474e+02 
1.418706e-01 2.691044e+03 4.235870e+02 -1.701850e+02 -7.344710e+02  -1.355014e+03 -2.534037e+02 -2.702927e+02 -3.338001e+02 3.338001e+02 
1.432080e-01 2.701606e+03 4.167861e+02 -1.625429e+02 -7.421309e+02  -1.360354e+03 -2.542447e+02 -2.731677e+02 -3.306442e+02 3.306442e+02 
1.445455e-01 2.712406e+03 4.108222e+02 -1.557451e+02 -7.497499e+02  -1.365595e+03 -2.550758e+02 -2.762223e+02 -3.279120e+02 3.279120e+02 
1.458829e-01 2.722343e+03 4.044347e+02 -1.481470e+02 -7.573235e+02  -1.370755e+03 -2.558997e+02 -2.789241e+02 -3.249712e+02 3.249712e+02 
1.472204e-01 2.731391e+03 3.975103e+02 -1.407978e+02 -7.648826e+02  -1.375837e+03 -2.567120e+02 -2.812357e+02 -3.217591e+02 3.217591e+02 
1.485579e-01 2.740204e+03 3.904283e+02 -1.329156e+02 -7.723879e+02  -1.380840e+03 -2.575117e+02 -2.835091e+02 -3.184629e+02 3.184629e+02 
1.498953e-01 2.749321e+03 3.852215e+02 -1.269196e+02 -7.798584e+02  -1.385766e+03 -2.583005e+02 -2.859764e+02 -3.161046e+02 3.161046e+02 
1.512328e-01 2.757603e+03 3.795105e+02 -1.204253e+02 -7.872863e+02  -1.390621e+03 -2.590820e+02 -2.880978e+02 -3.134989e+02 3.134989e+02 
1.525702e-01 2.765019e+03 3.733057e+02 -1.134554e+02 -7.946785e+02  -1.395409e+03 -2.598523e+02 -2.898293e+02 -3.106415e+02 3.106415e+02 
1.539077e-01 2.772220e+03 3.672596e+02 -1.066505e+02 -8.020303e+02  -1.400135e+03 -2.606103e+02 -2.915145e+02 -3.078533e+02 3.078533e+02 
1.552452e-01 2.779896e+03 3.634501e+02 -1.020920e+02 -8.093468e+02  -1.404793e+03 -2.613585e+02 -2.934665e+02 -3.061840e+02 3.061840e+02 
1.565826e-01 2.786939e+03 3.592586e+02 -9.715928e+01 -8.166132e+02  -1.409385e+03 -2.620986e+02 -2.951624e+02 -3.043219e+02 3.043219e+02 
1.579201e-01 2.793193e+03 3.545607e+02 -9.173389e+01 -8.238317e+02  -1.413926e+03 -2.628274e+02 -2.965193e+02 -3.022026e+02 3.022026e+02 
1.592575e-01 2.799287e+03 3.503537e+02 -8.681054e+01 -8.310264e+02  -1.418403e+03 -2.635442e+02 -2.978175e+02 -3.003221e+02 3.003221e+02 
1.605950e-01 2.805728e+03 3.480085e+02 -8.376030e+01 -8.381886e+02  -1.422833e+03 -2.642507e+02 -2.993478e+02 -2.993647e+02 2.993647e+02 
1.619324e-01 2.812154e+03 3.456197e+02 -8.066829e+01 -8.452942e+02  -1.427198e+03 -2.649497e+02 -3.009023e+02 -2.983868e+02 2.983868e+02 
1.632699e-01 2.817790e+03 3.426767e+02 -7.704002e+01 -8.523382e+02  -1.431511e+03 -2.656387e+02 -3.020666e+02 -2.971292e+02 2.971292e+02 
1.646074e-01 2.823075e+03 3.402884e+02 -7.397225e+01 -8.593655e+02  -1.435773e+03 -2.663163e+02 -3.031399e+02 -2.961365e+02 2.961365e+02 
1.659448e-01 2.828730e+03 3.390244e+02 -7.204212e+01 -8.663623e+02  -1.439988e+03 -2.669824e+02 -3.044225e+02 -2.957019e+02 2.957019e+02 
1.672823e-01 2.834969e+03 3.381009e+02 -7.046141e+01 -8.733000e+02  -1.444143e+03 -2.676405e+02 -3.060196e+02 -2.954370e+02 2.954370e+02 
1.686197e-01 2.840498e+03 3.366751e+02 -6.838274e+01 -8.802000e+02  -1.448249e+03 -2.682906e+02 -3.072894e+02 -2.949168e+02 2.949168e+02 
1.699572e-01 2.845542e+03 3.355155e+02 -6.658523e+01 -8.870602e+02  -1.452299e+03 -2.689311e+02 -3.084000e+02 -2.945281e+02 2.945281e+02 
1.712946e-01 2.850653e+03 3.347928e+02 -6.522959e+01 -8.938932e+02  -1.456379e+03 -2.695606e+02 -3.095471e+02 -2.943452e+02 2.943452e+02 
1.726321e-01 2.856509e+03 3.344182e+02 -6.423953e+01 -9.006689e+02  -1.460261e+03 -2.701802e+02 -3.111053e+02 -2.943343e+02 2.943343e+02 
1.739696e-01 2.862480e+03 3.340969e+02 -6.330459e+01 -9.074078e+02  -1.464164e+03 -2.707981e+02 -3.127533e+02 -2.943528e+02 2.943528e+02 
1.753070e-01 2.867669e+03 3.334903e+02 -6.208677e+01 -9.141106e+02  -1.468011e+03 -2.714005e+02 -3.140495e+02 -2.942263e+02 2.942263e+02 
1.766445e-01 2.872610e+03 3.327693e+02 -6.077189e+01 -9.207822e+02  -1.471800e+03 -2.719969e+02 -3.152913e+02 -2.940356e+02 2.940356e+02 
1.779819e-01 2.877839e+03 3.320502e+02 -5.946434e+01 -9.274146e+02  -1.475556e+03 -2.725838e+02 -3.166663e+02 -2.938411e+02 2.938411e+02 
1.793194e-01 2.883978e+03 3.314141e+02 -5.824914e+01 -9.340072e+02  -1.479262e+03 -2.731631e+02 -3.185247e+02 -2.936892e+02 2.936892e+02 
1.806569e-01 2.889694e+03 3.302942e+02 -5.655886e+01 -9.405671e+02  -1.482901e+03 -2.737378e+02 -3.202728e+02 -2.932994e+02 2.932994e+02 
1.819943e-01 2.894751e+03 3.286832e+02 -5.437599e+01 -9.470925e+02  -1.486487e+03 -2.743061e+02 -3.216900e+02 -2.926592e+02 2.926592e+02 
1.833318e-01 2.899591e+03 3.269451e+02 -5.208024e+01 -9.535712e+02  -1.490029e+03 -2.748649e+02 -3.230299e+02 -2.919545e+02 2.919545e+02 
1.846692e-01 2.904814e+03 3.253312e+02 -4.991784e+01 -9.600288e+02  -1.493529e+03 -2.754150e+02 -3.245993e+02 -2.913070e+02 2.913070e+02 
1.860067e-01 2.910817e+03 3.235297e+02 -4.756876e+01 -9.664385e+02  -1.496970e+03 -2.759598e+02 -3.265995e+02 -2.905676e+02 2.905676e+02 
1.873441e-01 2.916353e+03 3.213932e+02 -4.489443e+01 -9.728252e+02  -1.500353e+03 -2.765015e+02 -3.284137e+02 -2.896692e+02 2.896692e+02 
1.886816e-01 2.921068e+03 3.187792e+02 -4.174039e+01 -9.791707e+02  -1.503690e+03 -2.770371e+02 -3.298710e+02 -2.885283e+02 2.885283e+02 
1.900191e-01 2.925514e+03 3.158333e+02 -3.826867e+01 -9.854781e+02  -1.506982e+03 -2.775647e+02 -3.312061e+02 -2.872214e+02 2.872214e+02 
1.913565e-01 2.930248e+03 3.123909e+02 -3.430520e+01 -9.917604e+02  -1.510230e+03 -2.780843e+02 -3.327178e+02 -2.856592e+02 2.856592e+02 
1.926940e-01 2.935738e+03 3.094057e+02 -3.080735e+01 -9.979994e+02  -1.513422e+03 -2.785997e+02 -3.346327e+02 -2.843302e+02 2.843302e+02 
1.940314e-01 2.940875e+03 3.062053e+02 -2.709310e+01 -1.004211e+03  -1.516575e+03 -2.791137e+02 -3.364378e+02 -2.829025e+02 2.829025e+02 
1.953689e-01 2.945041e+03 3.022764e+02 -2.265525e+01 -1.010383e+03  -1.519667e+03 -2.796211e+02 -3.377775e+02 -2.811105e+02 2.811105e+02 
1.967064e-01 2.948748e+03 2.977950e+02 -1.767302e+01 -1.016524e+03  -1.522712e+03 -2.801213e+02 -3.389066e+02 -2.790389e+02 2.790389e+02 
1.980438e-01 2.952548e+03 2.933411e+02 -1.272698e+01 -1.022642e+03  -1.525729e+03 -2.806150e+02 -3.401228e+02 -2.769790e+02 2.769790e+02 
1.993813e-01 2.956987e+03 2.892374e+02 -8.133816e+00 -1.028716e+03  -1.528704e+03 -2.811045e+02 -3.416511e+02 -2.750938e+02 2.750938e+02 
2.007187e-01 2.961444e+03 2.853155e+02 -3.725399e+00 -1.034755e+03  -1.531629e+03 -2.815914e+02 -3.432902e+02 -2.733058e+02 2.733058e+02 
2.020562e-01 2.964987e+03 2.807339e+02 1.340451e+00 -1.040766e+03  -1.534500e+03 -2.820743e+02 -3.444663e+02 -2.711932e+02 2.711932e+02 
2.033936e-01 2.967788e+03 2.757975e+02 6.755952e+00 -1.046729e+03  -1.537342e+03 -2.825515e+02 -3.452962e+02 -2.688991e+02 2.688991e+02 
2.047311e-01 2.970375e+03 2.707710e+02 1.224823e+01 -1.052678e+03  -1.540150e+03 -2.830222e+02 -3.460587e+02 -2.665566e+02 2.665566e+02 
2.060686e-01 2.973314e+03 2.662444e+02 1.724210e+01 -1.058583e+03  -1.542922e+03 -2.834859e+02 -3.470144e+02 -2.644624e+02 2.644624e+02 
2.074060e-01 2.976974e+03 2.623570e+02 2.158958e+01 -1.064447e+03  -1.545652e+03 -2.839469e+02 -3.483443e+02 -2.626880e+02 2.626880e+02 
2.087435e-01 2.979960e+03 2.580141e+02 2.639558e+01 -1.070289e+03  -1.548341e+03 -2.844119e+02 -3.493683e+02 -2.606949e+02 2.606949e+02 
2.100809e-01 2.981984e+03 2.531694e+02 3.169367e+01 -1.076083e+03  -1.550996e+03 -2.848611e+02 -3.499234e+02 -2.584483e+02 2.584483e+02 
2.114184e-01 2.983554e+03 2.487710e+02 3.653780e+01 -1.081855e+03  -1.553625e+03 -2.853089e+02 -3.502974e+02 -2.564198e+02 2.564198e+02 
2.127559e-01 2.985211e+03 2.445438e+02 4.120633e+01 -1.087590e+03  -1.556223e+03 -2.857501e+02 -3.506987e+02 -2.544738e+02 2.544738e+02 
2.140933e-01 2.987365e+03 2.406176e+02 4.556920e+01 -1.093301e+03  -1.558788e+03 -2.861856e+02 -3.513860e+02 -2.526748e+02 2.526748e+02 
2.154308e-01 2.990106e+03 2.370664e+02 4.955400e+01 -1.098963e+03  -1.561322e+03 -2.866194e+02 -3.523742e+02 -2.510662e+02 2.510662e+02 
2.167682e-01 2.991855e+03 2.339080e+02 5.314229e+01 -1.104585e+03  -1.563824e+03 -2.870509e+02 -3.528938e+02 -2.496598e+02 2.496598e+02 
2.181057e-01 2.992866e+03 2.303775e+02 5.710013e+01 -1.110187e+03  -1.566297e+03 -2.874768e+02 -3.530679e+02 -2.480637e+02 2.480637e+02 
2.194431e-01 2.993560e+03 2.267014e+02 6.119500e+01 -1.115757e+03  -1.568737e+03 -2.878955e+02 -3.530920e+02 -2.463873e+02 2.463873e+02 
2.207806e-01 2.994531e+03 2.232419e+02 6.506554e+01 -1.121286e+03  -1.571161e+03 -2.883083e+02 -3.532672e+02 -2.448144e+02 2.448144e+02 
2.221181e-01 2.996198e+03 2.210499e+02 6.766746e+01 -1.126780e+03  -1.573562e+03 -2.887481e+02 -3.537910e+02 -2.438719e+02 2.438719e+02 
2.234555e-01 2.998284e+03 2.191909e+02 6.992907e+01 -1.132245e+03  -1.575931e+03 -2.891221e+02 -3.545347e+02 -2.431029e+02 2.431029e+02 
2.247930e-01 2.999439e+03 2.167231e+02 7.280448e+01 -1.137672e+03  -1.578263e+03 -2.895255e+02 -3.548483e+02 -2.420287e+02 2.420287e+02 
2.261304e-01 2.999981e+03 2.141275e+02 7.579495e+01 -1.143064e+03  -1.580576e+03 -2.899238e+02 -3.548722e+02 -2.408864e+02 2.408864e+02 
2.274679e-01 3.000291e+03 2.120093e+02 7.830811e+01 -1.148430e+03  -1.582863e+03 -2.903157e+02 -3.547781e+02 -2.399792e+02 2.399792e+02 
2.288054e-01 3.000871e+03 2.099995e+02 8.070111e+01 -1.153770e+03  -1.585133e+03 -2.907014e+02 -3.548241e+02 -2.391205e+02 2.391205e+02 
2.301428e-01 3.002142e+03 2.083373e+02 8.274572e+01 -1.159070e+03  -1.587381e+03 -2.910816e+02 -3.552368e+02 -2.384343e+02 2.384343e+02 
2.314803e-01 3.004150e+03 2.073594e+02 8.409784e+01 -1.164347e+03  -1.589600e+03 -2.914605e+02 -3.560451e+02 -2.380919e+02 2.380919e+02 
2.328177e-01 3.005361e+03 2.061222e+02 8.571676e+01 -1.169573e+03  -1.591783e+03 -2.918383e+02 -3.564573e+02 -2.376216e+02 2.376216e+02 
2.341552e-01 3.005751e+03 2.044867e+02 8.772820e+01 -1.174786e+03  -1.593942e+03 -2.922113e+02 -3.564677e+02 -2.369503e+02 2.369503e+02 
2.354926e-01 3.005932e+03 2.026853e+02 8.989347e+01 -1.179958e+03  -1.596086e+03 -2.925782e+02 -3.563974e+02 -2.361933e+02 2.361933e+02 
2.368301e-01 3.006339e+03 2.010436e+02 9.189435e+01 -1.185111e+03  -1.598215e+03 -2.929395e+02 -3.564427e+02 -2.355095e+02 2.355095e+02 
2.381676e-01 3.007383e+03 1.997693e+02 9.352642e+01 -1.190232e+03  -1.600316e+03 -2.932949e+02 -3.567858e+02 -2.350064e+02 2.350064e+02 
2.395050e-01 3.009296e+03 1.990714e+02 9.457958e+01 -1.195315e+03  -1.602389e+03 -2.936495e+02 -3.576103e+02 -2.347918e+02 2.347918e+02 
2.408425e-01 3.010942e+03 1.980999e+02 9.590249e+01 -1.200374e+03  -1.604430e+03 -2.940033e+02 -3.583074e+02 -2.344492e+02 2.344492e+02 
2.421799e-01 3.011629e+03 1.965226e+02 9.783053e+01 -1.205399e+03  -1.606451e+03 -2.943536e+02 -3.585731e+02 -2.338027e+02 2.338027e+02 
2.435174e-01 3.011940e+03 1.946620e+02 1.000384e+02 -1.210398e+03  -1.608449e+03 -2.947002e+02 -3.586080e+02 -2.330100e+02 2.330100e+02 
2.448548e-01 3.012086e+03 1.927502e+02 1.022903e+02 -1.215374e+03  -1.610427e+03 -2.950412e+02 -3.586158e+02 -2.321897e+02 2.321897e+02 
2.461923e-01 3.012689e+03 1.910022e+02 1.043754e+02 -1.220315e+03  -1.612391e+03 -2.953763e+02 -3.588359e+02 -2.314433e+02 2.314433e+02 
2.475298e-01 3.014077e+03 1.894123e+02 1.062983e+02 -1.225235e+03  -1.614328e+03 -2.957083e+02 -3.594790e+02 -2.307773e+02 2.307773e+02 
2.488672e-01 3.016199e+03 1.882436e+02 1.077965e+02 -1.230120e+03  -1.616236e+03 -2.960407e+02 -3.604736e+02 -2.303276e+02 2.303276e+02 
2.502047e-01 3.017276e+03 1.864652e+02 1.099057e+02 -1.234984e+03  -1.618116e+03 -2.963726e+02 -3.609844e+02 -2.295805e+02 2.295805e+02 
2.515421e-01 3.017684e+03 1.842382e+02 1.124623e+02 -1.239818e+03  -1.619972e+03 -2.967008e+02 -3.611687e+02 -2.286042e+02 2.286042e+02 
2.528796e-01 3.017633e+03 1.815203e+02 1.155035e+02 -1.244615e+03  -1.621813e+03 -2.970247e+02 -3.611548e+02 -2.273804e+02 2.273804e+02 
2.542171e-01 3.017647e+03 1.788132e+02 1.185307e+02 -1.249405e+03  -1.623631e+03 -2.973437e+02 -3.611364e+02 -2.261575e+02 2.261575e+02 
2.555545e-01 3.018088e+03 1.763012e+02 1.213564e+02 -1.254157e+03  -1.625438e+03 -2.976582e+02 -3.613606e+02 -2.250311e+02 2.250311e+02 
2.568920e-01 3.019523e+03 1.742219e+02 1.237527e+02 -1.258882e+03  -1.627222e+03 -2.979700e+02 -3.620867e+02 -2.241194e+02 2.241194e+02 
2.582294e-01 3.021202e+03 1.722736e+02 1.260101e+02 -1.263581e+03  -1.628974e+03 -2.982827e+02 -3.629772e+02 -2.232808e+02 2.232808e+02 
2.595669e-01 3.021818e+03 1.696605e+02 1.289358e+02 -1.268260e+03  -1.630696e+03 -2.985956e+02 -3.633715e+02 -2.221161e+02 2.221161e+02 
2.609043e-01 3.021706e+03 1.666444e+02 1.322613e+02 -1.272904e+03  -1.632402e+03 -2.989053e+02 -3.633676e+02 -2.207463e+02 2.207463e+02 
2.622418e-01 3.021237e+03 1.634433e+02 1.357684e+02 -1.277518e+03  -1.634093e+03 -2.992099e+02 -3.631836e+02 -2.192802e+02 2.192802e+02 
2.635793e-01 3.020703e+03 1.602393e+02 1.392704e+02 -1.282121e+03  -1.635771e+03 -2.995098e+02 -3.630237e+02 -2.178082e+02 2.178082e+02 
2.649167e-01 3.020677e+03 1.572242e+02 1.425771e+02 -1.286684e+03  -1.637437e+03 -2.998060e+02 -3.630856e+02 -2.164298e+02 2.164298e+02 
2.662542e-01 3.021548e+03 1.546455e+02 1.454559e+02 -1.291236e+03  -1.639078e+03 -3.001001e+02 -3.635810e+02 -2.152670e+02 2.152670e+02 
2.675916e-01 3.022734e+03 1.525481e+02 1.478481e+02 -1.295757e+03  -1.640693e+03 -3.003947e+02 -3.643008e+02 -2.143537e+02 2.143537e+02 
2.689291e-01 3.022923e+03 1.498965e+02 1.507921e+02 -1.300243e+03  -1.642285e+03 -3.006892e+02 -3.645058e+02 -2.131654e+02 2.131654e+02 
2.702666e-01 3.022386e+03 1.468099e+02 1.541711e+02 -1.304704e+03  -1.643854e+03 -3.009805e+02 -3.643644e+02 -2.117614e+02 2.117614e+02 
2.716040e-01 3.021345e+03 1.435067e+02 1.577640e+02 -1.309140e+03  -1.645413e+03 -3.012685e+02 -3.639798e+02 -2.102419e+02 2.102419e+02 
2.729415e-01 3.020249e+03 1.404050e+02 1.611440e+02 -1.313552e+03  -1.646965e+03 -3.015519e+02 -3.635592e+02 -2.088232e+02 2.088232e+02 
2.742789e-01 3.019455e+03 1.375634e+02 1.642656e+02 -1.317945e+03  -1.648504e+03 -3.018299e+02 -3.632965e+02 -2.075251e+02 2.075251e+02 
2.756164e-01 3.019390e+03 1.350674e+02 1.670404e+02 -1.322314e+03  -1.650027e+03 -3.021316e+02 -3.634074e+02 -2.064005e+02 2.064005e+02 
2.769538e-01 3.020182e+03 1.331469e+02 1.692363e+02 -1.326654e+03  -1.651527e+03 -3.023812e+02 -3.639611e+02 -2.055695e+02 2.055695e+02 
2.782913e-01 3.020423e+03 1.311596e+02 1.714975e+02 -1.330961e+03  -1.653002e+03 -3.026578e+02 -3.642362e+02 -2.047083e+02 2.047083e+02 
2.796288e-01 3.019633e+03 1.287400e+02 1.741921e+02 -1.335241e+03  -1.654459e+03 -3.029326e+02 -3.640088e+02 -2.036331e+02 2.036331e+02 
2.809662e-01 3.018255e+03 1.260333e+02 1.771705e+02 -1.339506e+03  -1.655907e+03 -3.031942e+02 -3.635110e+02 -2.024106e+02 2.024106e+02 
2.823037e-01 3.016691e+03 1.232208e+02 1.802502e+02 -1.343745e+03  -1.657346e+03 -3.034702e+02 -3.629035e+02 -2.011298e+02 2.011298e+02 
2.836411e-01 3.015280e+03 1.209264e+02 1.828072e+02 -1.347962e+03  -1.658776e+03 -3.037324e+02 -3.623909e+02 -2.001048e+02 2.001048e+02 
2.849786e-01 3.014432e+03 1.188749e+02 1.851163e+02 -1.352151e+03  -1.660197e+03 -3.039908e+02 -3.621279e+02 -1.991957e+02 1.991957e+02 
2.863161e-01 3.014538e+03 1.172903e+02 1.869578e+02 -1.356320e+03  -1.661597e+03 -3.042474e+02 -3.623607e+02 -1.985227e+02 1.985227e+02 
2.876535e-01 3.015036e+03 1.161130e+02 1.883921e+02 -1.360460e+03  -1.662978e+03 -3.045052e+02 -3.628146e+02 -1.980581e+02 1.980581e+02 
2.889910e-01 3.014586e+03 1.146531e+02 1.901086e+02 -1.364574e+03  -1.664335e+03 -3.047632e+02 -3.627903e+02 -1.974547e+02 1.974547e+02 
2.903284e-01 3.013360e+03 1.127786e+02 1.922384e+02 -1.368663e+03  -1.665684e+03 -3.050184e+02 -3.623907e+02 -1.966434e+02 1.966434e+02 
2.916659e-01 3.011700e+03 1.106903e+02 1.945793e+02 -1.372730e+03  -1.667024e+03 -3.052697e+02 -3.617772e+02 -1.957213e+02 1.957213e+02 
2.930033e-01 3.009953e+03 1.086255e+02 1.968930e+02 -1.376781e+03  -1.668356e+03 -3.055043e+02 -3.610991e+02 -1.948061e+02 1.948061e+02 
2.943408e-01 3.008445e+03 1.068547e+02 1.989049e+02 -1.380805e+03  -1.669681e+03 -3.057604e+02 -3.605668e+02 -1.940339e+02 1.940339e+02 
2.956783e-01 3.007627e+03 1.053613e+02 2.006430e+02 -1.384814e+03  -1.670992e+03 -3.060005e+02 -3.603635e+02 -1.933964e+02 1.933964e+02 
2.970157e-01 3.007824e+03 1.043938e+02 2.018464e+02 -1.388795e+03  -1.672291e+03 -3.062394e+02 -3.606872e+02 -1.930244e+02 1.930244e+02 
2.983532e-01 3.008310e+03 1.037217e+02 2.027577e+02 -1.392751e+03  -1.673567e+03 -3.064798e+02 -3.611486e+02 -1.928069e+02 1.928069e+02 
2.996906e-01 3.007766e+03 1.024899e+02 2.042321e+02 -1.396687e+03  -1.674824e+03 -3.067202e+02 -3.611280e+02 -1.923108e+02 1.923108e+02 
3.010281e-01 3.006493e+03 1.008543e+02 2.061038e+02 -1.400594e+03  -1.676068e+03 -3.069581e+02 -3.607303e+02 -1.916119e+02 1.916119e+02 
3.023656e-01 3.004751e+03 9.900961e+01 2.081809e+02 -1.404490e+03  -1.677308e+03 -3.071932e+02 -3.601061e+02 -1.908072e+02 1.908072e+02 
3.037030e-01 3.002982e+03 9.712828e+01 2.102955e+02 -1.408352e+03  -1.678543e+03 -3.074241e+02 -3.594636e+02 -1.899792e+02 1.899792e+02 
3.050405e-01 3.001456e+03 9.533988e+01 2.123126e+02 -1.412204e+03  -1.679765e+03 -3.076509e+02 -3.589354e+02 -1.891909e+02 1.891909e+02 
3.063779e-01 3.000472e+03 9.380497e+01 2.140707e+02 -1.416040e+03  -1.680978e+03 -3.078750e+02 -3.586941e+02 -1.885309e+02 1.885309e+02 
3.077154e-01 3.000548e+03 9.273825e+01 2.153606e+02 -1.419853e+03  -1.682182e+03 -3.080980e+02 -3.589860e+02 -1.880997e+02 1.880997e+02 
3.090528e-01 3.001119e+03 9.210831e+01 2.162108e+02 -1.423639e+03  -1.683363e+03 -3.083224e+02 -3.595303e+02 -1.878984e+02 1.878984e+02 
3.103903e-01 3.000913e+03 9.081651e+01 2.177337e+02 -1.427406e+03  -1.684524e+03 -3.085474e+02 -3.597182e+02 -1.873670e+02 1.873670e+02 
3.117278e-01 2.999787e+03 8.907906e+01 2.196940e+02 -1.431141e+03  -1.685673e+03 -3.087710e+02 -3.594116e+02 -1.866145e+02 1.866145e+02 
3.130652e-01 2.998038e+03 8.709308e+01 2.219009e+02 -1.434873e+03  -1.686815e+03 -3.089920e+02 -3.588200e+02 -1.857371e+02 1.857371e+02 
3.144027e-01 2.996141e+03 8.492864e+01 2.242809e+02 -1.438577e+03  -1.687951e+03 -3.092095e+02 -3.581540e+02 -1.847651e+02 1.847651e+02 
3.157401e-01 2.994362e+03 8.278684e+01 2.266364e+02 -1.442266e+03  -1.689081e+03 -3.094234e+02 -3.575327e+02 -1.837989e+02 1.837989e+02 
3.170776e-01 2.993059e+03 8.082928e+01 2.288081e+02 -1.445930e+03  -1.690202e+03 -3.096340e+02 -3.571607e+02 -1.829218e+02 1.829218e+02 
3.184151e-01 2.992489e+03 7.923173e+01 2.306111e+02 -1.449585e+03  -1.691596e+03 -3.098427e+02 -3.571419e+02 -1.822252e+02 1.822252e+02 
3.197525e-01 2.992951e+03 7.819810e+01 2.318536e+02 -1.453212e+03  -1.692409e+03 -3.100521e+02 -3.576642e+02 -1.818135e+02 1.818135e+02 
3.210900e-01 2.993227e+03 7.697529e+01 2.332882e+02 -1.456815e+03  -1.693505e+03 -3.102631e+02 -3.581120e+02 -1.813129e+02 1.813129e+02 
3.224274e-01 2.992386e+03 7.515353e+01 2.353195e+02 -1.460398e+03  -1.694541e+03 -3.104735e+02 -3.579895e+02 -1.805173e+02 1.805173e+02 
3.237649e-01 2.990755e+03 7.297843e+01 2.377044e+02 -1.463969e+03  -1.695693e+03 -3.106827e+02 -3.574866e+02 -1.795433e+02 1.795433e+02 
3.251023e-01 2.988707e+03 7.062119e+01 2.402695e+02 -1.467515e+03  -1.696637e+03 -3.108890e+02 -3.567758e+02 -1.784761e+02 1.784761e+02 
3.264398e-01 2.986607e+03 6.820874e+01 2.428821e+02 -1.471043e+03  -1.697675e+03 -3.110918e+02 -3.560285e+02 -1.773750e+02 1.773750e+02 
3.277773e-01 2.984677e+03 6.587443e+01 2.454169e+02 -1.474554e+03  -1.698709e+03 -3.112906e+02 -3.553606e+02 -1.763093e+02 1.763093e+02 
3.291147e-01 2.983192e+03 6.378910e+01 2.476971e+02 -1.478056e+03  -1.699736e+03 -3.114874e+02 -3.549312e+02 -1.753645e+02 1.753645e+02 
3.304522e-01 2.982746e+03 6.216340e+01 2.495189e+02 -1.481529e+03  -1.700755e+03 -3.116824e+02 -3.550103e+02 -1.746521e+02 1.746521e+02 
3.317896e-01 2.983098e+03 6.117335e+01 2.507075e+02 -1.484982e+03  -1.701756e+03 -3.118788e+02 -3.555031e+02 -1.742609e+02 1.742609e+02 
3.331271e-01 2.982983e+03 5.973634e+01 2.523411e+02 -1.488413e+03  -1.702737e+03 -3.120766e+02 -3.557628e+02 -1.736516e+02 1.736516e+02 
3.344645e-01 2.981732e+03 5.785746e+01 2.544171e+02 -1.491828e+03  -1.703708e+03 -3.122741e+02 -3.554740e+02 -1.728236e+02 1.728236e+02 
3.358020e-01 2.979749e+03 5.572990e+01 2.567395e+02 -1.495224e+03  -1.704668e+03 -3.124696e+02 -3.548286e+02 -1.718718e+02 1.718718e+02 
3.371395e-01 2.977461e+03 5.343789e+01 2.592253e+02 -1.498603e+03  -1.705625e+03 -3.126620e+02 -3.540003e+02 -1.708320e+02 1.708320e+02 
3.384769e-01 2.975063e+03 5.109494e+01 2.617556e+02 -1.501963e+03  -1.706579e+03 -3.128515e+02 -3.531340e+02 -1.697624e+02 1.697624e+02 
3.398144e-01 2.972893e+03 4.896472e+01 2.640728e+02 -1.505311e+03  -1.707530e+03 -3.130375e+02 -3.523733e+02 -1.687933e+02 1.687933e+02 
3.411518e-01 2.971192e+03 4.710572e+01 2.661138e+02 -1.508643e+03  -1.708474e+03 -3.132208e+02 -3.518466e+02 -1.679598e+02 1.679598e+02 
3.424893e-01 2.970348e+03 4.563338e+01 2.677680e+02 -1.511949e+03  -1.709412e+03 -3.134026e+02 -3.517507e+02 -1.673187e+02 1.673187e+02 
3.438268e-01 2.970526e+03 4.478312e+01 2.687996e+02 -1.515239e+03  -1.710335e+03 -3.135853e+02 -3.521659e+02 -1.669921e+02 1.669921e+02 
3.451642e-01 2.970437e+03 4.383388e+01 2.699374e+02 -1.518507e+03  -1.711236e+03 -3.137698e+02 -3.524468e+02 -1.666214e+02 1.666214e+02 
3.465017e-01 2.969157e+03 4.234935e+01 2.716050e+02 -1.521757e+03  -1.712125e+03 -3.139544e+02 -3.521635e+02 -1.659871e+02 1.659871e+02 
3.478391e-01 2.967155e+03 4.051924e+01 2.736165e+02 -1.524993e+03  -1.713012e+03 -3.141374e+02 -3.515170e+02 -1.651777e+02 1.651777e+02 
3.491766e-01 2.964718e+03 3.849034e+01 2.758253e+02 -1.528207e+03  -1.713891e+03 -3.143178e+02 -3.506455e+02 -1.642652e+02 1.642652e+02 
3.505140e-01 2.962121e+03 3.650803e+01 2.779873e+02 -1.531410e+03  -1.714770e+03 -3.144949e+02 -3.496883e+02 -1.633729e+02 1.633729e+02 
3.518515e-01 2.959659e+03 3.457472e+01 2.800945e+02 -1.534601e+03  -1.715646e+03 -3.146689e+02 -3.487992e+02 -1.625011e+02 1.625011e+02 
3.531890e-01 2.957650e+03 3.280501e+01 2.820341e+02 -1.537767e+03  -1.716519e+03 -3.148399e+02 -3.481258e+02 -1.617066e+02 1.617066e+02 
3.545264e-01 2.956383e+03 3.135647e+01 2.836535e+02 -1.540924e+03  -1.717387e+03 -3.150094e+02 -3.478128e+02 -1.610708e+02 1.610708e+02 
3.558639e-01 2.956205e+03 3.057556e+01 2.846023e+02 -1.544060e+03  -1.718241e+03 -3.151783e+02 -3.480643e+02 -1.607715e+02 1.607715e+02 
3.572013e-01 2.956291e+03 3.015907e+01 2.851890e+02 -1.547178e+03  -1.719080e+03 -3.153494e+02 -3.484635e+02 -1.606599e+02 1.606599e+02 
3.585388e-01 2.955560e+03 2.907558e+01 2.864484e+02 -1.550278e+03  -1.719905e+03 -3.155219e+02 -3.484627e+02 -1.602192e+02 1.602192e+02 
3.598763e-01 2.953869e+03 2.760008e+01 2.880937e+02 -1.553357e+03  -1.720721e+03 -3.156933e+02 -3.479723e+02 -1.595837e+02 1.595837e+02 
3.612137e-01 2.951605e+03 2.593652e+01 2.899244e+02 -1.556427e+03  -1.721529e+03 -3.158628e+02 -3.471986e+02 -1.588523e+02 1.588523e+02 
3.625512e-01 2.949027e+03 2.413957e+01 2.918902e+02 -1.559477e+03  -1.722337e+03 -3.160298e+02 -3.462522e+02 -1.580491e+02 1.580491e+02 
3.638886e-01 2.946401e+03 2.231862e+01 2.938795e+02 -1.562514e+03  -1.723146e+03 -3.161938e+02 -3.452887e+02 -1.572298e+02 1.572298e+02 
3.652261e-01 2.943999e+03 2.059343e+01 2.957615e+02 -1.565542e+03  -1.723952e+03 -3.163543e+02 -3.444526e+02 -1.564551e+02 1.564551e+02 
3.665635e-01 2.942125e+03 1.909594e+01 2.974162e+02 -1.568548e+03  -1.724755e+03 -3.165126e+02 -3.438447e+02 -1.557931e+02 1.557931e+02 
3.679010e-01 2.941066e+03 1.794989e+01 2.987210e+02 -1.571547e+03  -1.725555e+03 -3.166701e+02 -3.436736e+02 -1.553023e+02 1.553023e+02 
3.692385e-01 2.941167e+03 1.739462e+01 2.994337e+02 -1.574523e+03  -1.726338e+03 -3.168273e+02 -3.440590e+02 -1.551125e+02 1.551125e+02 
3.705759e-01 2.941372e+03 1.696462e+01 3.000229e+02 -1.577478e+03  -1.727102e+03 -3.169871e+02 -3.445226e+02 -1.549922e+02 1.549922e+02 
3.719134e-01 2.940440e+03 1.590491e+01 3.012426e+02 -1.580422e+03  -1.727857e+03 -3.171481e+02 -3.444148e+02 -1.545581e+02 1.545581e+02 
3.732508e-01 2.938647e+03 1.443853e+01 3.028688e+02 -1.583355e+03  -1.728605e+03 -3.173085e+02 -3.439004e+02 -1.539234e+02 1.539234e+02 
3.745883e-01 2.936341e+03 1.272292e+01 3.047448e+02 -1.586263e+03  -1.729346e+03 -3.174668e+02 -3.431148e+02 -1.531624e+02 1.531624e+02 
3.759258e-01 2.933691e+03 1.088608e+01 3.067356e+02 -1.589162e+03  -1.730087e+03 -3.176225e+02 -3.421579e+02 -1.523356e+02 1.523356e+02 
3.772632e-01 2.931036e+03 9.031193e+00 3.087410e+02 -1.592049e+03  -1.730829e+03 -3.177750e+02 -3.411744e+02 -1.514951e+02 1.514951e+02 
3.786007e-01 2.928561e+03 7.244669e+00 3.106799e+02 -1.594927e+03  -1.731572e+03 -3.179252e+02 -3.403065e+02 -1.506869e+02 1.506869e+02 
3.799381e-01 2.926659e+03 5.643024e+00 3.124308e+02 -1.597786e+03  -1.732313e+03 -3.180730e+02 -3.396915e+02 -1.499691e+02 1.499691e+02 
3.812756e-01 2.925449e+03 4.370174e+00 3.138514e+02 -1.600632e+03  -1.733042e+03 -3.182197e+02 -3.394495e+02 -1.494109e+02 1.494109e+02 
3.826130e-01 2.925422e+03 3.646534e+00 3.147195e+02 -1.603460e+03  -1.733762e+03 -3.183662e+02 -3.397742e+02 -1.491308e+02 1.491308e+02 
3.839505e-01 2.925642e+03 3.280910e+00 3.152351e+02 -1.606273e+03  -1.734466e+03 -3.185151e+02 -3.402661e+02 -1.490386e+02 1.490386e+02 
3.852880e-01 2.925026e+03 2.223799e+00 3.164417e+02 -1.609069e+03  -1.735158e+03 -3.186655e+02 -3.403333e+02 -1.486034e+02 1.486034e+02 
3.866254e-01 2.923414e+03 7.706847e-01 3.180454e+02 -1.611849e+03  -1.735840e+03 -3.188159e+02 -3.399067e+02 -1.479723e+02 1.479723e+02 
3.879629e-01 2.921125e+03 -9.561282e-01 3.199216e+02 -1.614619e+03  -1.736521e+03 -3.189644e+02 -3.391387e+02 -1.472018e+02 1.472018e+02 
3.893003e-01 2.918464e+03 -2.843254e+00 3.219513e+02 -1.617372e+03  -1.737200e+03 -3.191107e+02 -3.381829e+02 -1.463485e+02 1.463485e+02 
3.906378e-01 2.915669e+03 -4.772423e+00 3.240268e+02 -1.620117e+03  -1.737878e+03 -3.192541e+02 -3.371425e+02 -1.454707e+02 1.454707e+02 
3.919753e-01 2.912985e+03 -6.631378e+00 3.260275e+02 -1.622846e+03  -1.738557e+03 -3.193950e+02 -3.361629e+02 -1.446231e+02 1.446231e+02 
3.933127e-01 2.910673e+03 -8.361835e+00 3.278949e+02 -1.625569e+03  -1.739234e+03 -3.195338e+02 -3.353657e+02 -1.438378e+02 1.438378e+02 
3.946502e-01 2.909023e+03 -9.845052e+00 3.295161e+02 -1.628270e+03  -1.739908e+03 -3.196710e+02 -3.348958e+02 -1.431727e+02 1.431727e+02 
3.959876e-01 2.908299e+03 -1.091026e+01 3.307186e+02 -1.630963e+03  -1.740574e+03 -3.198069e+02 -3.349036e+02 -1.427176e+02 1.427176e+02 
3.973251e-01 2.908490e+03 -1.125844e+01 3.312030e+02 -1.633642e+03  -1.741228e+03 -3.199444e+02 -3.353585e+02 -1.426248e+02 1.426248e+02 
3.986625e-01 2.908489e+03 -1.187258e+01 3.319580e+02 -1.636180e+03  -1.741865e+03 -3.200843e+02 -3.357340e+02 -1.424063e+02 1.424063e+02 
4.000000e-01 2.907349e+03 -1.306199e+01 3.332869e+02 -1.638942e+03  -1.742491e+03 -3.202251e+02 -3.355339e+02 -1.419026e+02 1.419026e+02 
